{"learner":{"attributes":{},"feature_names":[],"feature_types":[],"gradient_booster":{"model":{"gbtree_model_param":{"num_parallel_tree":"1","num_trees":"10"},"iteration_indptr":[0,1,2,3,4,5,6,7,8,9,10],"tree_info":[0,0,0,0,0,0,0,0,0,0],"trees":[{"base_weights":[-1.3130103E-6,2.0111988E-1,-6.027295E-2,9.414247E-1,-9.671124E-2,-1.24321E-1,1.4079262E-1,1.5427312E0,6.868989E-1,-6.8582076E-1,2.2400261E-1,-1.3280104E-2,-2.830549E-1,3.7362003E-1,-2.211358E-2,1.2036102E0,1.8449107E0,1.2200922E0,9.374461E-2,2.0305537E-2,-1.1310256E0,3.1692564E-1,-1.2509111E0,9.5949066E-1,-7.7498354E-2,-5.9020215E-1,-9.526759E-3,-1.4687909E-1,5.213365E-1,-4.932812E-1,2.6040561E-2,1.7294808E-1,7.003679E-2,1.9718319E-1,1.1432674E-1,7.66646E-2,1.5867835E-1,2.0199416E-2,-7.038064E-2,-9.729775E-2,1.3270195E-1,-1.283413E-1,1.611892E-2,7.4452266E-2,8.988098E-3,-1.8017176E-1,-5.7723194E-2,-8.226599E-2,1.1395662E-1,-1.1170163E-2,4.796312E-2,-3.9734613E-2,-6.996062E-2,-3.1176586E-2,4.522315E-3,1.4496157E-2,-6.1884303E-2,1.0050505E-1,4.0751364E-2,-1.3464741E-1,7.0264204E-3,1.374454E-2,-2.7390843E-2],"categories":[],"categories_nodes":[],"categories_segments":[],"categories_sizes":[],"default_left":[0,0,0,0,0,0,0,0,0,0,0,0,0,0,0,0,0,0,0,0,0,0,0,0,0,0,0,0,0,0,0,0,0,0,0,0,0,0,0,0,0,0,0,0,0,0,0,0,0,0,0,0,0,0,0,0,0,0,0,0,0,0,0],"id":0,"left_children":[1,3,5,7,9,11,13,15,17,19,21,23,25,27,29,31,33,35,37,39,41,43,45,47,49,51,53,55,57,59,61,-1,-1,-1,-1,-1,-1,-1,-1,-1,-1,-1,-1,-1,-1,-1,-1,-1,-1,-1,-1,-1,-1,-1,-1,-1,-1,-1,-1,-1,-1,-1,-1],"loss_changes":[1.2090342E3,5.070788E3,9.882874E2,1.00874365E3,3.0988652E3,1.0258706E3,7.032239E2,1.987793E2,1.4665728E3,1.817583E3,1.4559465E3,2.1394749E3,2.0126565E3,5.868948E2,2.4752386E2,2.4413733E2,8.994556E1,4.0484497E2,1.897674E2,2.9043137E3,6.984634E2,9.6995953E2,2.3260217E2,6.815842E2,6.1225726E2,2.3782031E2,2.0971693E2,2.3258936E2,3.2692505E2,4.864798E2,3.3080112E2,0E0,0E0,0E0,0E0,0E0,0E0,0E0,0E0,0E0,0E0,0E0,0E0,0E0,0E0,0E0,0E0,0E0,0E0,0E0,0E0,0E0,0E0,0E0,0E0,0E0,0E0,0E0,0E0,0E0,0E0,0E0,0E0],"parents":[2147483647,0,0,1,1,2,2,3,3,4,4,5,5,6,6,7,7,8,8,9,9,10,10,11,11,12,12,13,13,14,14,15,15,16,16,17,17,18,18,19,19,20,20,21,21,22,22,23,23,24,24,25,25,26,26,27,27,28,28,29,29,30,30],"right_children":[2,4,6,8,10,12,14,16,18,20,22,24,26,28,30,32,34,36,38,40,42,44,46,48,50,52,54,56,58,60,62,-1,-1,-1,-1,-1,-1,-1,-1,-1,-1,-1,-1,-1,-1,-1,-1,-1,-1,-1,-1,-1,-1,-1,-1,-1,-1,-1,-1,-1,-1,-1,-1],"split_conditions":[1.2650982E-1,8.15745E-1,8.340197E-1,7.093436E-1,3.3478353E-2,7.028942E-1,2.1758065E-1,6.951864E-1,1.06848665E-1,8.2459044E-1,1.2553781E-1,1.5490493E-1,1.2344644E-2,1.4286835E-1,1.1289308E-2,1.237978E-1,1.2637813E-1,5.9866044E-3,1.2748922E-1,1.1103678E-2,8.5563713E-1,8.5984707E-1,1.2221931E-2,6.951864E-1,7.022125E-1,1.3898689E-1,1.4703138E-1,1.3513356E-1,1.5577978E-1,8.6989135E-1,6.716419E-1,1.7294808E-1,7.003679E-2,1.9718319E-1,1.1432674E-1,7.66646E-2,1.5867835E-1,2.0199416E-2,-7.038064E-2,-9.729775E-2,1.3270195E-1,-1.283413E-1,1.611892E-2,7.4452266E-2,8.988098E-3,-1.8017176E-1,-5.7723194E-2,-8.226599E-2,1.1395662E-1,-1.1170163E-2,4.796312E-2,-3.9734613E-2,-6.996062E-2,-3.1176586E-2,4.522315E-3,1.4496157E-2,-6.1884303E-2,1.0050505E-1,4.0751364E-2,-1.3464741E-1,7.0264204E-3,1.374454E-2,-2.7390843E-2],"split_indices":[9,41,41,41,10,41,8,41,9,41,10,1,38,8,38,3,3,28,8,9,41,41,38,41,10,9,1,1,1,41,8,0,0,0,0,0,0,0,0,0,0,0,0,0,0,0,0,0,0,0,0,0,0,0,0,0,0,0,0,0,0,0,0],"split_type":[0,0,0,0,0,0,0,0,0,0,0,0,0,0,0,0,0,0,0,0,0,0,0,0,0,0,0,0,0,0,0,0,0,0,0,0,0,0,0,0,0,0,0,0,0,0,0,0,0,0,0,0,0,0,0,0,0,0,0,0,0,0,0],"sum_hessian":[9.9737625E4,2.299684E4,7.674079E4,6.59695E3,1.6399889E4,5.8201484E4,1.8539299E4,1.960438E3,4.636512E3,5.78058E3,1.061931E4,3.424605E4,2.3955438E4,7.631285E3,1.0908014E4,9.261026E2,1.0343353E3,2.4411113E3,2.1954006E3,2.235644E3,3.5449358E3,9.99066E3,6.2864996E2,2.1199126E3,3.2126137E4,1.1283704E4,1.2671733E4,1.6869814E3,5.9443037E3,1.0105892E3,9.897425E3,4.516781E2,4.744245E2,8.7436084E2,1.5997453E2,1.092826E3,1.3482854E3,1.9336923E3,2.6170834E2,1.2702979E3,9.653464E2,3.1709954E3,3.739405E2,3.4641985E3,6.5264614E3,3.449451E2,2.8370483E2,1.9421909E2,1.9256935E3,3.0268682E4,1.8574543E3,4.0858496E3,7.1978545E3,1.9426908E3,1.0729042E4,1.042834E3,6.4414746E2,1.1308201E3,4.813484E3,4.014361E2,6.09153E2,7.217351E3,2.6800735E3],"tree_param":{"num_deleted":"0","num_feature":"51","num_nodes":"63","size_leaf_vector":"1"}},{"base_weights":[-9.498226E-6,1.8136765E-1,-5.4279495E-2,8.495192E-1,-8.729011E-2,-1.1195339E-1,1.267344E-1,1.3954705E0,6.191738E-1,-6.2013E-1,2.0165765E-1,-1.0194282E-2,-2.5361216E-1,3.363514E-1,-1.9934578E-2,1.086612E0,1.6716906E0,1.1455011E0,1.2488723E-1,-1.7460017E-1,-1.2707046E0,2.8526762E-1,-1.1337966E0,-9.97049E-2,6.15588E-1,-5.241923E-1,-8.939366E-3,-1.3977484E-1,4.683324E-1,-2.2573587E-1,9.109933E-2,1.4126317E-1,3.7356935E-2,1.7881213E-1,1.03156164E-1,6.903981E-2,1.5770197E-1,4.4330727E-2,-1.5414196E-2,-6.599845E-2,7.777536E-2,-1.7552395E-1,-3.0720783E-2,3.528225E-2,-1.01422034E-1,-1.5225868E-1,-2.794592E-2,-9.307866E-4,-3.707453E-2,6.514111E-2,-1.8579827E-1,-6.110573E-2,-3.4649167E-2,4.988392E-3,-2.6979525E-2,4.7687795E-2,-3.4768015E-2,5.7009615E-2,-1.782216E-4,-1.1999164E-1,-1.5783241E-3,3.0415405E-2,-2.5598818E-2],"categories":[],"categories_nodes":[],"categories_segments":[],"categories_sizes":[],"default_left":[0,0,0,0,0,0,0,0,0,0,0,0,0,0,0,0,0,0,0,0,0,0,0,0,0,0,0,0,0,0,0,0,0,0,0,0,0,0,0,0,0,0,0,0,0,0,0,0,0,0,0,0,0,0,0,0,0,0,0,0,0,0,0],"id":1,"left_children":[1,3,5,7,9,11,13,15,17,19,21,23,25,27,29,31,33,35,37,39,41,43,45,47,49,51,53,55,57,59,61,-1,-1,-1,-1,-1,-1,-1,-1,-1,-1,-1,-1,-1,-1,-1,-1,-1,-1,-1,-1,-1,-1,-1,-1,-1,-1,-1,-1,-1,-1,-1,-1],"loss_changes":[9.80989E2,4.120041E3,8.0083136E2,8.2690137E2,2.5206047E3,8.385776E2,5.698651E2,1.6474048E2,1.2046239E3,1.6682515E3,1.1856067E3,1.8964615E3,1.6100084E3,4.7955438E2,2.4923392E2,2.1440015E2,7.482861E1,4.393357E2,2.1235217E2,1.5803856E3,1.0916956E3,8.774108E2,2.073888E2,7.257218E2,3.766361E2,1.7804517E2,1.9599165E2,2.1258043E2,2.8582605E2,7.8175854E2,5.239871E2,0E0,0E0,0E0,0E0,0E0,0E0,0E0,0E0,0E0,0E0,0E0,0E0,0E0,0E0,0E0,0E0,0E0,0E0,0E0,0E0,0E0,0E0,0E0,0E0,0E0,0E0,0E0,0E0,0E0,0E0,0E0,0E0],"parents":[2147483647,0,0,1,1,2,2,3,3,4,4,5,5,6,6,7,7,8,8,9,9,10,10,11,11,12,12,13,13,14,14,15,15,16,16,17,17,18,18,19,19,20,20,21,21,22,22,23,23,24,24,25,25,26,26,27,27,28,28,29,29,30,30],"right_children":[2,4,6,8,10,12,14,16,18,20,22,24,26,28,30,32,34,36,38,40,42,44,46,48,50,52,54,56,58,60,62,-1,-1,-1,-1,-1,-1,-1,-1,-1,-1,-1,-1,-1,-1,-1,-1,-1,-1,-1,-1,-1,-1,-1,-1,-1,-1,-1,-1,-1,-1,-1,-1],"split_conditions":[1.2650982E-1,8.15745E-1,8.340197E-1,7.093436E-1,3.3478353E-2,7.022186E-1,2.1758065E-1,6.951864E-1,1.00807294E-1,2.5223425E-2,1.2553781E-1,6.618736E-1,1.2344644E-2,1.4206177E-1,2.4749282E-1,6.901828E-1,1.2637813E-1,5.9866044E-3,1.2177352E-1,1.6314656E-2,2.5020413E-2,9.0931517E-1,8.437052E-1,4.9706742E-1,8.3548915E-1,7.3827454E-3,7.918934E-1,8.584643E-1,9.0931517E-1,8.6733097E-1,6.716419E-1,1.4126317E-1,3.7356935E-2,1.7881213E-1,1.03156164E-1,6.903981E-2,1.5770197E-1,4.4330727E-2,-1.5414196E-2,-6.599845E-2,7.777536E-2,-1.7552395E-1,-3.0720783E-2,3.528225E-2,-1.01422034E-1,-1.5225868E-1,-2.794592E-2,-9.307866E-4,-3.707453E-2,6.514111E-2,-1.8579827E-1,-6.110573E-2,-3.4649167E-2,4.988392E-3,-2.6979525E-2,4.7687795E-2,-3.4768015E-2,5.7009615E-2,-1.782216E-4,-1.1999164E-1,-1.5783241E-3,3.0415405E-2,-2.5598818E-2],"split_indices":[9,41,41,41,10,41,8,41,30,2,10,41,38,50,0,41,3,28,8,6,1,41,41,41,2,38,41,41,41,41,8,0,0,0,0,0,0,0,0,0,0,0,0,0,0,0,0,0,0,0,0,0,0,0,0,0,0,0,0,0,0,0,0],"split_type":[0,0,0,0,0,0,0,0,0,0,0,0,0,0,0,0,0,0,0,0,0,0,0,0,0,0,0,0,0,0,0,0,0,0,0,0,0,0,0,0,0,0,0,0,0,0,0,0,0,0,0,0,0,0,0,0,0,0,0,0,0,0,0],"sum_hessian":[9.9658195E4,2.2950936E4,7.670726E4,6.5812393E3,1.6369697E4,5.8172848E4,1.853441E4,1.9513071E3,4.629932E3,5.7553267E3,1.061437E4,3.3854727E4,2.4318121E4,7.629359E3,1.0905052E4,9.235566E2,1.0277505E3,2.241653E3,2.3882793E3,3.4167317E3,2.338595E3,9.989722E3,6.2464886E2,2.9618938E4,4.235791E3,1.1547151E4,1.2770969E4,1.6558308E3,5.973528E3,3.8212795E3,7.083773E3,6.3310516E2,2.9045142E2,8.680676E2,1.596829E2,1.0922775E3,1.1493755E3,1.115133E3,1.2731462E3,2.263437E3,1.1532946E3,1.5555165E3,7.830785E2,9.496754E3,4.9296747E2,4.2875137E2,1.9589748E2,2.221189E4,7.4070464E3,4.176049E3,5.9742283E1,7.754229E3,3.7929224E3,1.0421678E4,2.349291E3,4.1717746E2,1.2386533E3,4.9103853E3,1.063143E3,6.766956E2,3.1445837E3,4.389478E3,2.694295E3],"tree_param":{"num_deleted":"0","num_feature":"51","num_nodes":"63","size_leaf_vector":"1"}},{"base_weights":[-1.5414511E-5,1.6400824E-1,-4.8911225E-2,6.307865E-1,-1.7156328E-1,-1.7071876E-1,2.2171188E-2,6.861456E-2,8.408976E-1,-1.1121192E0,8.057309E-2,-2.2127135E-1,4.070912E-1,-1.7994325E-1,4.340741E-2,5.8938223E-1,-1.3266497E0,9.7047895E-1,2.4029154E-1,-4.928178E-1,-1.6424484E0,-1.1758869E0,1.6083275E-1,-4.989818E-2,-4.7834074E-1,7.694295E-1,-6.456549E-1,8.0838454E-1,-2.2383583E-1,2.1629266E-1,1.440966E-2,1.8790914E-1,3.889442E-2,1.7201321E-1,-1.4533348E-1,1.2914364E-1,8.224677E-2,-3.1691026E-2,4.3267697E-2,-1.7535646E-1,2.8379008E-2,-7.039756E-2,-1.7135301E-1,2.1172409E-1,-1.3328294E-1,2.1744547E-2,-9.162296E-2,8.566459E-2,-1.6075624E-2,-9.5438264E-2,-4.398202E-2,8.721955E-2,-1.4881925E-1,-1.5220216E-1,-2.906783E-2,1.0301453E-1,-1.8018268E-1,-3.2356326E-2,1.845321E-2,9.877591E-3,4.631252E-2,1.0999974E-2,-1.9458529E-3],"categories":[],"categories_nodes":[],"categories_segments":[],"categories_sizes":[],"default_left":[0,0,0,0,0,0,0,0,0,0,0,0,0,0,0,0,0,0,0,0,0,0,0,0,0,0,0,0,0,0,0,0,0,0,0,0,0,0,0,0,0,0,0,0,0,0,0,0,0,0,0,0,0,0,0,0,0,0,0,0,0,0,0],"id":2,"left_children":[1,3,5,7,9,11,13,15,17,19,21,23,25,27,29,31,33,35,37,39,41,43,45,47,49,51,53,55,57,59,61,-1,-1,-1,-1,-1,-1,-1,-1,-1,-1,-1,-1,-1,-1,-1,-1,-1,-1,-1,-1,-1,-1,-1,-1,-1,-1,-1,-1,-1,-1,-1,-1],"loss_changes":[7.978849E2,3.578716E3,6.635781E2,1.1286135E3,3.1522703E3,8.2505585E2,2.0773834E2,1.8905317E3,5.4110547E2,9.2209375E2,1.0573274E3,1.144135E3,8.673507E2,1.9981107E2,2.1956339E2,4.8903473E2,2.7546118E2,2.707119E2,1.3260074E2,1.2710826E3,9.9744385E1,3.281903E2,6.010792E2,1.5663054E3,1.9007178E2,3.9364178E2,1.8074625E2,1.1525116E2,1.795356E2,1.8243018E2,1.21430244E2,0E0,0E0,0E0,0E0,0E0,0E0,0E0,0E0,0E0,0E0,0E0,0E0,0E0,0E0,0E0,0E0,0E0,0E0,0E0,0E0,0E0,0E0,0E0,0E0,0E0,0E0,0E0,0E0,0E0,0E0,0E0,0E0],"parents":[2147483647,0,0,1,1,2,2,3,3,4,4,5,5,6,6,7,7,8,8,9,9,10,10,11,11,12,12,13,13,14,14,15,15,16,16,17,17,18,18,19,19,20,20,21,21,22,22,23,23,24,24,25,25,26,26,27,27,28,28,29,29,30,30],"right_children":[2,4,6,8,10,12,14,16,18,20,22,24,26,28,30,32,34,36,38,40,42,44,46,48,50,52,54,56,58,60,62,-1,-1,-1,-1,-1,-1,-1,-1,-1,-1,-1,-1,-1,-1,-1,-1,-1,-1,-1,-1,-1,-1,-1,-1,-1,-1,-1,-1,-1,-1,-1,-1],"split_conditions":[1.2650982E-1,8.238599E-1,1.0058272E-2,1.0266272E-2,2.4739297E-2,8.4407157E-1,1.4703138E-1,7.5241225E-3,1.4418518E-2,2.5223425E-2,8.279133E-1,7.028942E-1,2.1932204E-1,7.0132923E-1,2.0907894E-1,8.067159E-1,8.167322E-1,7.093436E-1,1.9655105E-1,1.6789468E-2,8.251319E-1,7.882236E-2,9.0931517E-1,1.5490493E-1,7.064811E-1,9.0931517E-1,8.6733097E-1,5.142942E-1,8.6989135E-1,1.807836E-1,4.9353346E-1,1.8790914E-1,3.889442E-2,1.7201321E-1,-1.4533348E-1,1.2914364E-1,8.224677E-2,-3.1691026E-2,4.3267697E-2,-1.7535646E-1,2.8379008E-2,-7.039756E-2,-1.7135301E-1,2.1172409E-1,-1.3328294E-1,2.1744547E-2,-9.162296E-2,8.566459E-2,-1.6075624E-2,-9.5438264E-2,-4.398202E-2,8.721955E-2,-1.4881925E-1,-1.5220216E-1,-2.906783E-2,1.0301453E-1,-1.8018268E-1,-3.2356326E-2,1.845321E-2,9.877591E-3,4.631252E-2,1.0999974E-2,-1.9458529E-3],"split_indices":[9,41,38,27,9,41,1,8,11,2,41,41,8,41,8,41,41,41,33,10,41,0,41,1,41,41,41,19,41,28,41,0,0,0,0,0,0,0,0,0,0,0,0,0,0,0,0,0,0,0,0,0,0,0,0,0,0,0,0,0,0,0,0],"split_type":[0,0,0,0,0,0,0,0,0,0,0,0,0,0,0,0,0,0,0,0,0,0,0,0,0,0,0,0,0,0,0,0,0,0,0,0,0,0,0,0,0,0,0,0,0,0,0,0,0,0,0,0,0,0,0,0,0,0,0,0,0,0,0],"sum_hessian":[9.948403E4,2.2845432E4,7.66386E4,9.554413E3,1.329102E4,2.8241785E4,4.8396812E4,2.5997815E3,6.9546313E3,2.809014E3,1.0482005E4,2.5970266E4,2.2715212E3,4.6008667E3,4.3795945E4,1.8935947E3,7.0618665E2,5.7199346E3,1.2346969E3,1.2966992E3,1.5123147E3,6.2854364E2,9.853462E3,1.5583108E4,1.0387156E4,1.6900889E3,5.814324E2,1.9489964E2,4.4059673E3,6.289764E3,3.750618E4,2.5357881E2,1.640016E3,2.768893E1,6.7849774E2,1.8028303E3,3.9171045E3,3.167252E2,9.179717E2,4.9380206E2,8.028972E2,1.0724818E2,1.4050665E3,2.8024073E1,6.005196E2,9.362164E3,4.9129745E2,1.6972319E3,1.3885877E4,7.758106E2,9.611346E3,1.6170933E3,7.2995705E1,1.6666989E2,4.1476248E2,1.8019576E2,1.4703896E1,3.5413442E3,8.6462305E2,4.26202E3,2.0277443E3,9.811581E3,2.76946E4],"tree_param":{"num_deleted":"0","num_feature":"51","num_nodes":"63","size_leaf_vector":"1"}},{"base_weights":[-5.1141204E-5,1.4706081E-1,-4.4629287E-2,5.5878115E-1,-1.5062496E-1,-9.273944E-2,1.06944315E-1,6.2225975E-2,7.389562E-1,-1.025076E0,7.512092E-2,-2.0231003E-1,1.663682E-4,2.7684757E-1,-2.0544296E-2,7.7284545E-1,-7.929913E-1,1.2201127E0,5.83361E-1,-4.4857576E-1,-1.5305836E0,-1.0356662E0,1.4643748E-1,-1.4066358E-1,-5.246315E-1,1.3551995E-1,-9.4858356E-2,-1.1448785E0,3.216921E-1,-4.4988415E-1,3.7036844E-2,1.727684E-1,5.6695648E-2,-7.638371E-3,-1.3342637E-1,-2.0549646E-2,1.2728813E-1,1.13510765E-1,2.7188549E-2,-1.6218789E-1,2.5524467E-2,-2.2799743E-2,-1.5781541E-1,-1.4930715E-1,-3.726981E-4,1.9650912E-2,-8.28317E-2,2.9612157E-2,-2.979537E-2,-8.7654926E-2,-1.4171704E-2,-2.0577295E-2,2.8929764E-2,-4.2836644E-2,3.2029145E-3,9.623996E-2,-1.3294156E-1,4.3380067E-2,8.053928E-3,-7.950616E-2,1.709773E-2,1.375162E-2,-2.1213133E-2],"categories":[],"categories_nodes":[],"categories_segments":[],"categories_sizes":[],"default_left":[0,0,0,0,0,0,0,0,0,0,0,0,0,0,0,0,0,0,0,0,0,0,0,0,0,0,0,0,0,0,0,0,0,0,0,0,0,0,0,0,0,0,0,0,0,0,0,0,0,0,0,0,0,0,0,0,0,0,0,0,0,0,0],"id":3,"left_children":[1,3,5,7,9,11,13,15,17,19,21,23,25,27,29,31,33,35,37,39,41,43,45,47,49,51,53,55,57,59,61,-1,-1,-1,-1,-1,-1,-1,-1,-1,-1,-1,-1,-1,-1,-1,-1,-1,-1,-1,-1,-1,-1,-1,-1,-1,-1,-1,-1,-1,-1,-1,-1],"loss_changes":[6.509078E2,2.8290793E3,5.554766E2,8.6652954E2,2.6446775E3,5.88599E2,3.9754114E2,1.5685223E3,5.31364E2,8.0042334E2,8.43737E2,5.270935E2,4.024726E2,5.0198767E2,2.592527E2,2.7613318E2,4.5423535E2,1.308374E2,9.229551E2,1.0621396E3,9.037085E1,3.0330078E2,4.885993E2,1.5302642E3,5.7382007E2,6.774601E2,7.7802045E2,9.491846E1,2.061883E2,2.6590192E2,2.3153902E2,0E0,0E0,0E0,0E0,0E0,0E0,0E0,0E0,0E0,0E0,0E0,0E0,0E0,0E0,0E0,0E0,0E0,0E0,0E0,0E0,0E0,0E0,0E0,0E0,0E0,0E0,0E0,0E0,0E0,0E0,0E0,0E0],"parents":[2147483647,0,0,1,1,2,2,3,3,4,4,5,5,6,6,7,7,8,8,9,9,10,10,11,11,12,12,13,13,14,14,15,15,16,16,17,17,18,18,19,19,20,20,21,21,22,22,23,23,24,24,25,25,26,26,27,27,28,28,29,29,30,30],"right_children":[2,4,6,8,10,12,14,16,18,20,22,24,26,28,30,32,34,36,38,40,42,44,46,48,50,52,54,56,58,60,62,-1,-1,-1,-1,-1,-1,-1,-1,-1,-1,-1,-1,-1,-1,-1,-1,-1,-1,-1,-1,-1,-1,-1,-1,-1,-1,-1,-1,-1,-1,-1,-1],"split_conditions":[1.2944438E-1,8.238599E-1,8.340197E-1,1.0266272E-2,2.4739297E-2,4.6923319E-1,2.1932204E-1,8.15745E-1,1.00807294E-1,2.5223425E-2,8.279133E-1,3.919775E-1,4.9003023E-1,1.3129656E-1,1.3379065E-2,8.067159E-1,8.106509E-3,9.860287E-3,7.093436E-1,1.6789468E-2,8.2459044E-1,1.2221931E-2,9.0931517E-1,7.022186E-1,4.005927E-1,4.4832075E-1,5.1860654E-1,4.8092887E-1,2.2702562E-2,8.8395286E-1,6.716419E-1,1.727684E-1,5.6695648E-2,-7.638371E-3,-1.3342637E-1,-2.0549646E-2,1.2728813E-1,1.13510765E-1,2.7188549E-2,-1.6218789E-1,2.5524467E-2,-2.2799743E-2,-1.5781541E-1,-1.4930715E-1,-3.726981E-4,1.9650912E-2,-8.28317E-2,2.9612157E-2,-2.979537E-2,-8.7654926E-2,-1.4171704E-2,-2.0577295E-2,2.8929764E-2,-4.2836644E-2,3.2029145E-3,9.623996E-2,-1.3294156E-1,4.3380067E-2,8.053928E-3,-7.950616E-2,1.709773E-2,1.375162E-2,-2.1213133E-2],"split_indices":[8,41,41,27,9,10,8,41,30,2,41,3,41,10,38,41,27,30,41,10,41,38,41,41,41,41,41,22,38,41,8,0,0,0,0,0,0,0,0,0,0,0,0,0,0,0,0,0,0,0,0,0,0,0,0,0,0,0,0,0,0,0,0],"split_type":[0,0,0,0,0,0,0,0,0,0,0,0,0,0,0,0,0,0,0,0,0,0,0,0,0,0,0,0,0,0,0,0,0,0,0,0,0,0,0,0,0,0,0,0,0,0,0,0,0,0,0,0,0,0,0,0,0,0,0,0,0,0,0],"sum_hessian":[9.9252336E4,2.3080914E4,7.617142E4,9.685E3,1.3395913E4,5.7819605E4,1.8351818E4,2.578927E3,7.1060737E3,2.7479377E3,1.0647975E4,2.6529846E4,3.1289758E4,7.8667197E3,1.0485099E4,1.408592E3,1.170335E3,1.7347518E3,5.371322E3,1.2847019E3,1.463236E3,6.415787E2,1.0006396E4,2.2271656E4,4.258189E3,1.290599E4,1.8383768E4,2.3979713E2,7.626923E3,1.2391161E3,9.245982E3,2.4854396E2,1.1600481E3,5.0409232E2,6.662426E2,6.181625E1,1.6729355E3,1.9371744E3,3.4341472E3,4.8120508E2,8.034968E2,5.1758747E1,1.4114772E3,4.4422842E2,1.9735027E2,9.518256E3,4.8813986E2,5.8965137E3,1.6375144E4,2.2182324E3,2.0399567E3,4.008724E3,8.897266E3,5.0660107E3,1.3317758E4,1.8969074E1,2.2082806E2,5.2059507E3,2.420972E3,7.961845E2,4.4293158E2,6.5892534E3,2.656729E3],"tree_param":{"num_deleted":"0","num_feature":"51","num_nodes":"63","size_leaf_vector":"1"}},{"base_weights":[-8.9480876E-5,1.3622747E-1,-4.0142875E-2,5.254439E-1,-1.416183E-1,-1.5663774E-1,1.4618089E-2,5.66948E-2,7.0058286E-1,-9.531312E-1,6.558998E-2,-1.9148128E-1,5.447849E-1,-1.8357229E-1,3.6586303E-2,4.8862234E-1,-1.1341785E0,8.154981E-1,1.7763902E-1,-4.0737006E-1,-1.4449283E0,-9.709326E-1,1.3002753E-1,-3.6366403E-2,-4.105499E-1,8.623247E-1,-1.1290846E0,6.224137E-1,-2.2214262E-1,1.8615776E-1,2.9925464E-3,1.6113673E-1,3.2206833E-2,1.5784237E-1,-1.247134E-1,9.990005E-2,5.922502E-2,-2.5843823E-2,3.825248E-2,-1.5178768E-1,2.3603715E-2,-1.731032E-2,-1.495605E-1,1.9746839E-1,-1.13838784E-1,1.7586363E-2,-7.5677626E-2,7.852299E-2,-1.4513184E-2,-2.0878373E-2,-5.269726E-2,1.08513944E-1,-9.216188E-2,-1.5859523E-1,3.4753102E-4,-9.178709E-3,1.1707671E-1,-3.6683626E-2,2.2071968E-3,1.4568265E-1,1.7198512E-2,1.3269235E-3,-2.9530192E-2],"categories":[],"categories_nodes":[],"categories_segments":[],"categories_sizes":[],"default_left":[0,0,0,0,0,0,0,0,0,0,0,0,0,0,0,0,0,0,0,0,0,0,0,0,0,0,0,0,0,0,0,0,0,0,0,0,0,0,0,0,0,0,0,0,0,0,0,0,0,0,0,0,0,0,0,0,0,0,0,0,0,0,0],"id":4,"left_children":[1,3,5,7,9,11,13,15,17,19,21,23,25,27,29,31,33,35,37,39,41,43,45,47,49,51,53,55,57,59,61,-1,-1,-1,-1,-1,-1,-1,-1,-1,-1,-1,-1,-1,-1,-1,-1,-1,-1,-1,-1,-1,-1,-1,-1,-1,-1,-1,-1,-1,-1,-1,-1],"loss_changes":[5.403186E2,2.4304277E3,4.8793835E2,7.684624E2,2.2051606E3,5.97847E2,2.265397E2,1.3108104E3,4.093789E2,7.153506E2,6.9791223E2,7.917652E2,6.163163E2,1.6153986E2,2.3535046E2,3.491674E2,2.0980005E2,2.2827563E2,1.0990492E2,9.047286E2,9.014624E1,3.03917E2,3.9997247E2,1.2192461E3,2.267832E2,3.8802252E2,9.574783E1,9.307133E1,1.7511829E2,1.5445529E2,1.17257034E2,0E0,0E0,0E0,0E0,0E0,0E0,0E0,0E0,0E0,0E0,0E0,0E0,0E0,0E0,0E0,0E0,0E0,0E0,0E0,0E0,0E0,0E0,0E0,0E0,0E0,0E0,0E0,0E0,0E0,0E0,0E0,0E0],"parents":[2147483647,0,0,1,1,2,2,3,3,4,4,5,5,6,6,7,7,8,8,9,9,10,10,11,11,12,12,13,13,14,14,15,15,16,16,17,17,18,18,19,19,20,20,21,21,22,22,23,23,24,24,25,25,26,26,27,27,28,28,29,29,30,30],"right_children":[2,4,6,8,10,12,14,16,18,20,22,24,26,28,30,32,34,36,38,40,42,44,46,48,50,52,54,56,58,60,62,-1,-1,-1,-1,-1,-1,-1,-1,-1,-1,-1,-1,-1,-1,-1,-1,-1,-1,-1,-1,-1,-1,-1,-1,-1,-1,-1,-1,-1,-1,-1,-1],"split_conditions":[1.2650982E-1,8.238599E-1,8.732314E-3,1.0266272E-2,2.5020413E-2,8.590436E-1,1.4703138E-1,7.5241225E-3,1.4418518E-2,2.1522403E-2,8.279133E-1,7.028942E-1,2.2230488E-1,7.0132923E-1,2.1758065E-1,8.067159E-1,8.167322E-1,1.2295062E-1,2.2161275E-1,1.6789468E-2,8.2459044E-1,7.882236E-2,9.0931517E-1,1.5490493E-1,1.413927E-1,9.080343E-1,2.276803E-1,1.3302726E-1,8.503076E-1,6.997102E-1,9.3636686E-1,1.6113673E-1,3.2206833E-2,1.5784237E-1,-1.247134E-1,9.990005E-2,5.922502E-2,-2.5843823E-2,3.825248E-2,-1.5178768E-1,2.3603715E-2,-1.731032E-2,-1.495605E-1,1.9746839E-1,-1.13838784E-1,1.7586363E-2,-7.5677626E-2,7.852299E-2,-1.4513184E-2,-2.0878373E-2,-5.269726E-2,1.08513944E-1,-9.216188E-2,-1.5859523E-1,3.4753102E-4,-9.178709E-3,1.1707671E-1,-3.6683626E-2,2.2071968E-3,1.4568265E-1,1.7198512E-2,1.3269235E-3,-2.9530192E-2],"split_indices":[9,41,38,27,1,41,1,8,11,3,41,41,8,41,8,41,41,10,33,10,41,0,41,1,6,41,30,29,41,41,41,0,0,0,0,0,0,0,0,0,0,0,0,0,0,0,0,0,0,0,0,0,0,0,0,0,0,0,0,0,0,0,0],"split_type":[0,0,0,0,0,0,0,0,0,0,0,0,0,0,0,0,0,0,0,0,0,0,0,0,0,0,0,0,0,0,0,0,0,0,0,0,0,0,0,0,0,0,0,0,0,0,0,0,0,0,0,0,0,0,0,0,0,0,0,0,0,0,0],"sum_hessian":[9.895824E4,2.2472695E4,7.648555E4,9.35999E3,1.3112704E4,2.4456512E4,5.2029035E4,2.546298E3,6.8136924E3,2.666397E3,1.0446308E4,2.3299809E4,1.1567031E3,5.190909E3,4.6838125E4,1.8690035E3,6.7729443E2,5.5856943E3,1.2279977E3,1.2647245E3,1.4016724E3,6.1058344E2,9.835724E3,1.3641735E4,9.658073E3,9.726687E2,1.8403438E2,2.3637405E2,4.954535E3,8.589601E3,3.8248523E4,2.4032072E2,1.6286829E3,2.6557096E1,6.507373E2,3.0638428E3,2.5218518E3,3.9244962E2,8.3554803E2,4.6345395E2,8.0127057E2,5.3879726E1,1.3477927E3,3.2263374E1,5.7832007E2,9.353094E3,4.8263028E2,1.594082E3,1.2047653E4,3.534831E3,6.1232417E3,8.650194E2,1.07649284E2,1.3084998E2,5.3184402E1,1.03023766E2,1.3335028E2,3.110881E3,1.8436543E3,9.362614E1,8.495975E3,3.6975617E4,1.2729094E3],"tree_param":{"num_deleted":"0","num_feature":"51","num_nodes":"63","size_leaf_vector":"1"}},{"base_weights":[-1.2289517E-4,-1.9404206E-1,2.3969173E-2,2.1881635E-1,-3.193336E-1,3.438258E-1,1.1500315E-3,-6.284712E-1,3.624913E-1,-6.0139173E-1,-1.3019258E-1,-5.474925E-1,4.2019805E-1,1.236828E-1,-4.453883E-2,-7.0065126E-2,-1.4961373E0,8.22972E-1,2.1761637E-2,-3.6834037E-1,-1.4271691E0,-3.940862E-2,-1.479749E0,2.8550324E-1,-8.1188685E-1,1.6950399E0,3.571851E-1,4.7919738E-1,-1.2917194E-1,-1.0683337E-1,9.4397806E-2,-6.3355565E-2,1.9968273E-1,-1.940691E-1,1.0789317E-2,-8.737716E-2,9.9661894E-2,5.0795056E-2,-6.0171377E-2,-8.847117E-2,-2.5380824E-3,-1.6525944E-1,-4.1280665E-2,1.0270033E-1,-1.3047225E-2,-3.419261E-2,-1.8280843E-1,-1.7790434E-1,4.9980965E-2,-1.3856988E-1,-4.4537093E-2,1.8478324E-1,4.3769818E-2,1.6770983E-2,6.7886755E-2,1.0546183E-1,3.387831E-2,-8.895888E-2,5.93866E-3,-2.1935144E-2,-8.914661E-4,2.377893E-2,-1.5038362E-3],"categories":[],"categories_nodes":[],"categories_segments":[],"categories_sizes":[],"default_left":[0,0,0,0,0,0,0,0,0,0,0,0,0,0,0,0,0,0,0,0,0,0,0,0,0,0,0,0,0,0,0,0,0,0,0,0,0,0,0,0,0,0,0,0,0,0,0,0,0,0,0,0,0,0,0,0,0,0,0,0,0,0,0],"id":5,"left_children":[1,3,5,7,9,11,13,15,17,19,21,23,25,27,29,31,33,35,37,39,41,43,45,47,49,51,53,55,57,59,61,-1,-1,-1,-1,-1,-1,-1,-1,-1,-1,-1,-1,-1,-1,-1,-1,-1,-1,-1,-1,-1,-1,-1,-1,-1,-1,-1,-1,-1,-1,-1,-1],"loss_changes":[4.608306E2,5.6392126E2,6.403874E2,3.0923856E2,4.4607587E2,3.9794562E2,4.5849377E2,1.7838757E2,3.4061264E2,6.454568E2,6.1342914E2,1.01881714E2,4.3174133E2,1.9995914E3,5.1631726E2,2.635424E2,1.0303815E2,2.7288782E2,3.7884305E2,4.638216E2,1.6817639E2,4.558522E2,1.2445386E2,5.0416286E1,7.311867E1,4.783911E1,3.12552E2,7.466245E2,1.8639146E3,4.5378894E2,2.8979993E2,0E0,0E0,0E0,0E0,0E0,0E0,0E0,0E0,0E0,0E0,0E0,0E0,0E0,0E0,0E0,0E0,0E0,0E0,0E0,0E0,0E0,0E0,0E0,0E0,0E0,0E0,0E0,0E0,0E0,0E0,0E0,0E0],"parents":[2147483647,0,0,1,1,2,2,3,3,4,4,5,5,6,6,7,7,8,8,9,9,10,10,11,11,12,12,13,13,14,14,15,15,16,16,17,17,18,18,19,19,20,20,21,21,22,22,23,23,24,24,25,25,26,26,27,27,28,28,29,29,30,30],"right_children":[2,4,6,8,10,12,14,16,18,20,22,24,26,28,30,32,34,36,38,40,42,44,46,48,50,52,54,56,58,60,62,-1,-1,-1,-1,-1,-1,-1,-1,-1,-1,-1,-1,-1,-1,-1,-1,-1,-1,-1,-1,-1,-1,-1,-1,-1,-1,-1,-1,-1,-1,-1,-1],"split_conditions":[4.4832075E-1,3.9572164E-1,4.8198175E-1,3.2719117E-1,4.005927E-1,4.689186E-1,1.2650982E-1,3.7489292E-1,3.3404294E-1,3.4625477E-1,5.415502E-1,1.3776457E-1,5.207205E-1,8.238599E-1,8.340197E-1,3.799904E-1,3.8887736E-1,3.540044E-1,3.8922396E-1,3.3404294E-1,1.3379065E-2,4.4526106E-1,4.2648485E-1,4.2510858E-1,1.6257424E-2,4.7995764E-1,4.749559E-1,7.093436E-1,2.4739297E-2,1.2950061E-2,2.1932204E-1,-6.3355565E-2,1.9968273E-1,-1.940691E-1,1.0789317E-2,-8.737716E-2,9.9661894E-2,5.0795056E-2,-6.0171377E-2,-8.847117E-2,-2.5380824E-3,-1.6525944E-1,-4.1280665E-2,1.0270033E-1,-1.3047225E-2,-3.419261E-2,-1.8280843E-1,-1.7790434E-1,4.9980965E-2,-1.3856988E-1,-4.4537093E-2,1.8478324E-1,4.3769818E-2,1.6770983E-2,6.7886755E-2,1.0546183E-1,3.387831E-2,-8.895888E-2,5.93866E-3,-2.1935144E-2,-8.914661E-4,2.377893E-2,-1.5038362E-3],"split_indices":[41,10,41,41,41,3,9,9,41,41,8,33,8,41,41,10,29,9,10,41,38,2,41,10,37,41,41,41,9,38,8,0,0,0,0,0,0,0,0,0,0,0,0,0,0,0,0,0,0,0,0,0,0,0,0,0,0,0,0,0,0,0,0],"split_type":[0,0,0,0,0,0,0,0,0,0,0,0,0,0,0,0,0,0,0,0,0,0,0,0,0,0,0,0,0,0,0,0,0,0,0,0,0,0,0,0,0,0,0,0,0,0,0,0,0,0,0,0,0,0,0,0,0,0,0,0,0,0,0],"sum_hessian":[9.8636516E4,1.0899383E4,8.773713E4,2.5374097E3,8.361973E3,5.8415723E3,8.1895555E4,3.6739783E2,2.170012E3,3.355651E3,5.006322E3,4.605429E2,5.3810293E3,2.2242305E4,5.9653254E4,2.2419368E2,1.4320415E2,9.222362E2,1.2477756E3,2.61819E3,7.37461E2,4.69174E3,3.1458176E2,1.1093942E2,3.496035E2,2.5222661E2,5.1288027E3,9.244131E3,1.2998174E4,4.118673E4,1.8466521E4,1.7671098E2,4.7482697E1,1.1196374E2,3.1240404E1,8.524602E1,8.369902E2,7.011787E2,5.46597E2,1.044291E3,1.5738989E3,6.028568E2,1.3460414E2,3.6831094E2,4.323429E3,7.419815E1,2.4038359E2,9.746261E0,1.0119316E2,1.3518271E2,2.1442076E2,2.2447832E2,2.7748291E1,3.2286223E3,1.9001805E3,1.812001E3,7.43213E3,2.581959E3,1.0416215E4,1.9164094E4,2.2022639E4,7.992705E3,1.0473816E4],"tree_param":{"num_deleted":"0","num_feature":"51","num_nodes":"63","size_leaf_vector":"1"}},{"base_weights":[-1.2442263E-4,-1.7525329E-1,2.1624768E-2,2.8975332E-1,-2.668712E-1,3.0967912E-1,1.0435168E-3,-6.126339E-1,4.9560517E-1,-2.2836465E-1,-1.3492332E0,-4.9506417E-1,3.7846288E-1,-2.010667E-1,2.4695769E-2,-6.259226E-2,-1.7367792E0,-2.2151394E-1,7.029661E-1,-4.574517E-1,-3.142451E-2,-3.0856043E-1,-1.6723353E0,-1.036896E0,-1.4070536E-1,1.537571E0,3.2155746E-1,4.060424E-2,-6.247755E-1,2.76889E-1,-1.3269272E-2,-5.7156708E-2,1.8124281E-1,-1.7711371E-1,6.895785E-2,1.0817974E-1,-5.2016664E-2,1.1595048E-1,4.2923197E-2,-2.4645925E-2,-1.2990882E-1,4.8234206E-2,-1.9939313E-2,7.6366134E-2,-1.2858413E-1,-4.9849734E-2,-1.7601815E-1,-1.2953924E-1,2.401471E-2,2.9370947E-2,-1.0579274E-1,1.67738E-1,3.9561402E-2,2.4401147E-2,9.6729875E-2,-5.3849723E-2,2.727958E-2,3.445385E-2,-9.320062E-2,6.808578E-2,3.4367188E-3,-1.4909658E-2,4.3773483E-3],"categories":[],"categories_nodes":[],"categories_segments":[],"categories_sizes":[],"default_left":[0,0,0,0,0,0,0,0,0,0,0,0,0,0,0,0,0,0,0,0,0,0,0,0,0,0,0,0,0,0,0,0,0,0,0,0,0,0,0,0,0,0,0,0,0,0,0,0,0,0,0,0,0,0,0,0,0,0,0,0,0,0,0],"id":6,"left_children":[1,3,5,7,9,11,13,15,17,19,21,23,25,27,29,31,33,35,37,39,41,43,45,47,49,51,53,55,57,59,61,-1,-1,-1,-1,-1,-1,-1,-1,-1,-1,-1,-1,-1,-1,-1,-1,-1,-1,-1,-1,-1,-1,-1,-1,-1,-1,-1,-1,-1,-1,-1,-1],"loss_changes":[3.7488608E2,4.6329382E2,5.1904486E2,3.3283032E2,3.7828546E2,3.2335486E2,3.9062408E2,2.057655E2,2.1698663E2,3.9578778E2,1.0434564E2,8.820499E1,3.543098E2,8.766445E2,7.004128E2,2.1538185E2,1.0337402E1,1.281641E2,1.408847E2,7.198312E2,4.0728833E2,7.968878E1,2.3638733E1,6.0322083E1,1.11624466E2,3.9483643E1,2.5657977E2,7.3329675E2,9.2632227E2,9.3772034E2,4.9264355E2,0E0,0E0,0E0,0E0,0E0,0E0,0E0,0E0,0E0,0E0,0E0,0E0,0E0,0E0,0E0,0E0,0E0,0E0,0E0,0E0,0E0,0E0,0E0,0E0,0E0,0E0,0E0,0E0,0E0,0E0,0E0,0E0],"parents":[2147483647,0,0,1,1,2,2,3,3,4,4,5,5,6,6,7,7,8,8,9,9,10,10,11,11,12,12,13,13,14,14,15,15,16,16,17,17,18,18,19,19,20,20,21,21,22,22,23,23,24,24,25,25,26,26,27,27,28,28,29,29,30,30],"right_children":[2,4,6,8,10,12,14,16,18,20,22,24,26,28,30,32,34,36,38,40,42,44,46,48,50,52,54,56,58,60,62,-1,-1,-1,-1,-1,-1,-1,-1,-1,-1,-1,-1,-1,-1,-1,-1,-1,-1,-1,-1,-1,-1,-1,-1,-1,-1,-1,-1,-1,-1,-1,-1],"split_conditions":[4.4832075E-1,3.8752353E-1,4.8198175E-1,3.2719117E-1,5.415502E-1,4.689186E-1,5.1860654E-1,3.7489292E-1,3.6801812E-1,4.005927E-1,4.2648485E-1,4.6222064E-1,5.207205E-1,4.9706742E-1,7.022186E-1,3.799904E-1,3.8449705E-1,8.122146E-3,3.3404294E-1,3.4625477E-1,4.0817407E-1,5.5010927E-1,5.3147215E-1,7.519731E-2,4.5139173E-1,4.7995764E-1,6.2981933E-1,6.0432273E-1,5.444379E-1,5.427363E-1,7.3827454E-3,-5.7156708E-2,1.8124281E-1,-1.7711371E-1,6.895785E-2,1.0817974E-1,-5.2016664E-2,1.1595048E-1,4.2923197E-2,-2.4645925E-2,-1.2990882E-1,4.8234206E-2,-1.9939313E-2,7.6366134E-2,-1.2858413E-1,-4.9849734E-2,-1.7601815E-1,-1.2953924E-1,2.401471E-2,2.9370947E-2,-1.0579274E-1,1.67738E-1,3.9561402E-2,2.4401147E-2,9.6729875E-2,-5.3849723E-2,2.727958E-2,3.445385E-2,-9.320062E-2,6.808578E-2,3.4367188E-3,-1.4909658E-2,4.3773483E-3],"split_indices":[41,2,41,41,8,3,41,9,30,41,41,21,8,41,41,10,27,38,41,41,41,8,29,11,7,41,8,8,27,7,38,0,0,0,0,0,0,0,0,0,0,0,0,0,0,0,0,0,0,0,0,0,0,0,0,0,0,0,0,0,0,0,0],"split_type":[0,0,0,0,0,0,0,0,0,0,0,0,0,0,0,0,0,0,0,0,0,0,0,0,0,0,0,0,0,0,0,0,0,0,0,0,0,0,0,0,0,0,0,0,0,0,0,0,0,0,0,0,0,0,0,0,0,0,0,0,0,0,0],"sum_hessian":[9.842144E4,1.0871872E4,8.754956E4,1.7891063E3,9.082766E3,5.8372734E3,8.171229E4,3.3195374E2,1.4571526E3,8.771904E3,3.108621E2,4.59154E2,5.3781196E3,8.559892E3,7.31524E4,2.2360167E2,1.0835207E2,3.2682407E2,1.1303285E3,4.054388E3,4.717516E3,7.411184E1,2.3675024E2,1.8079045E2,2.7836353E2,2.5046065E2,5.1276587E3,5.45145E3,3.1084414E3,9.570622E3,6.3581777E4,1.7641023E2,4.7191437E1,1.0710548E2,1.2466022E0,6.0440647E1,2.6638342E2,4.224774E2,7.078511E2,3.2427466E3,8.116414E2,1.1618591E3,3.555657E3,3.5443577E1,3.8668262E1,1.6948744E1,2.198015E2,1.5034383E2,3.0446625E1,1.8935905E2,8.900448E1,2.2272383E2,2.7736822E1,4.5791357E3,5.48523E2,1.5598242E3,3.891626E3,7.4809064E2,2.3603506E3,3.5896055E3,5.981016E3,1.8804307E4,4.477747E4],"tree_param":{"num_deleted":"0","num_feature":"51","num_nodes":"63","size_leaf_vector":"1"}},{"base_weights":[-1.21949306E-4,1.1455251E-1,-3.3392824E-2,4.3558046E-1,-1.0803291E-1,-2.1048453E-1,-1.9388387E-3,3.129749E-2,5.907284E-1,-8.111142E-1,5.985576E-2,5.4713595E-1,-3.1781152E-1,4.764031E-1,-2.2619281E-2,6.382251E-1,-6.990714E-1,1.0286539E0,4.4170278E-1,-2.7621743E-1,-1.318389E0,-8.610047E-1,1.1553994E-1,-1.2493271E0,8.820759E-1,-1.7979062E-1,-5.907963E-1,9.426779E-1,2.405212E-1,-2.0626086E-1,1.4655906E-2,4.032639E-2,1.4094804E-1,-8.936652E-3,-1.1742037E-1,8.263185E-2,1.4445105E-1,9.606596E-2,1.9231971E-2,-1.42072E-1,3.049923E-2,2.481354E-3,-1.3715778E-1,-1.2977149E-1,5.6904117E-3,3.8314465E-2,-1.2321583E-3,-1.6475862E-1,-4.7201592E-2,5.7796827E-3,1.1174297E-1,-2.689218E-2,6.6012265E-3,-7.66884E-2,1.0997843E-1,6.0400434E-2,1.6156222E-1,-1.013305E-2,4.7723953E-2,-2.5076736E-2,6.2491495E-2,-5.337904E-2,2.1315443E-3],"categories":[],"categories_nodes":[],"categories_segments":[],"categories_sizes":[],"default_left":[0,0,0,0,0,0,0,0,0,0,0,0,0,0,0,0,0,0,0,0,0,0,0,0,0,0,0,0,0,0,0,0,0,0,0,0,0,0,0,0,0,0,0,0,0,0,0,0,0,0,0,0,0,0,0,0,0,0,0,0,0,0,0],"id":7,"left_children":[1,3,5,7,9,11,13,15,17,19,21,23,25,27,29,31,33,35,37,39,41,43,45,47,49,51,53,55,57,59,61,-1,-1,-1,-1,-1,-1,-1,-1,-1,-1,-1,-1,-1,-1,-1,-1,-1,-1,-1,-1,-1,-1,-1,-1,-1,-1,-1,-1,-1,-1,-1,-1],"loss_changes":[3.7503113E2,1.5796173E3,4.2439996E2,5.67718E2,1.5410591E3,9.345819E2,6.40046E2,1.1136555E3,4.2643164E2,6.8248096E2,5.4053656E2,8.5930963E2,3.7916376E2,2.9468317E2,4.245459E2,2.4807208E2,3.3020593E2,1.3848438E2,6.316496E2,8.160964E2,9.22937E1,2.4102972E2,3.400943E2,6.873599E1,2.3326337E2,1.4652722E2,1.00701245E3,2.0423889E2,1.4424579E2,3.872724E2,1.8831519E2,0E0,0E0,0E0,0E0,0E0,0E0,0E0,0E0,0E0,0E0,0E0,0E0,0E0,0E0,0E0,0E0,0E0,0E0,0E0,0E0,0E0,0E0,0E0,0E0,0E0,0E0,0E0,0E0,0E0,0E0,0E0,0E0],"parents":[2147483647,0,0,1,1,2,2,3,3,4,4,5,5,6,6,7,7,8,8,9,9,10,10,11,11,12,12,13,13,14,14,15,15,16,16,17,17,18,18,19,19,20,20,21,21,22,22,23,23,24,24,25,25,26,26,27,27,28,28,29,29,30,30],"right_children":[2,4,6,8,10,12,14,16,18,20,22,24,26,28,30,32,34,36,38,40,42,44,46,48,50,52,54,56,58,60,62,-1,-1,-1,-1,-1,-1,-1,-1,-1,-1,-1,-1,-1,-1,-1,-1,-1,-1,-1,-1,-1,-1,-1,-1,-1,-1,-1,-1,-1,-1,-1,-1],"split_conditions":[1.2896253E-1,8.238599E-1,1.483995E-1,1.0266272E-2,2.5218463E-2,7.022186E-1,1.576346E-1,8.15745E-1,1.00807294E-1,2.200687E-2,8.279133E-1,6.951864E-1,1.392212E-1,8.4185945E-3,6.099513E-3,5.9866044E-3,8.281815E-3,1.5681041E-2,7.093436E-1,1.6270524E-2,8.2459044E-1,1.2221931E-2,8.5984707E-1,3.226795E-1,1.3325685E-1,1.392986E-1,8.7431234E-1,7.718494E-1,7.718494E-1,8.415139E-1,1.5962303E-1,4.032639E-2,1.4094804E-1,-8.936652E-3,-1.1742037E-1,8.263185E-2,1.4445105E-1,9.606596E-2,1.9231971E-2,-1.42072E-1,3.049923E-2,2.481354E-3,-1.3715778E-1,-1.2977149E-1,5.6904117E-3,3.8314465E-2,-1.2321583E-3,-1.6475862E-1,-4.7201592E-2,5.7796827E-3,1.1174297E-1,-2.689218E-2,6.6012265E-3,-7.66884E-2,1.0997843E-1,6.0400434E-2,1.6156222E-1,-1.013305E-2,4.7723953E-2,-2.5076736E-2,6.2491495E-2,-5.337904E-2,2.1315443E-3],"split_indices":[8,41,9,27,0,41,5,41,30,10,41,41,3,38,38,28,1,8,41,28,41,38,41,33,8,8,41,41,41,41,28,0,0,0,0,0,0,0,0,0,0,0,0,0,0,0,0,0,0,0,0,0,0,0,0,0,0,0,0,0,0,0,0],"split_type":[0,0,0,0,0,0,0,0,0,0,0,0,0,0,0,0,0,0,0,0,0,0,0,0,0,0,0,0,0,0,0,0,0,0,0,0,0,0,0,0,0,0,0,0,0,0,0,0,0,0,0,0,0,0,0,0,0,0,0,0,0,0,0],"sum_hessian":[9.8294125E4,2.210445E4,7.618967E4,9.050394E3,1.3054056E4,1.1490479E4,6.4699195E4,2.5102947E3,6.5400996E3,2.5155688E3,1.0538487E4,1.4252875E3,1.0065191E4,2.6803452E3,6.201885E4,1.3710746E3,1.13922E3,1.6590184E3,4.881081E3,1.2251996E3,1.2903691E3,6.000972E2,9.93839E3,2.2354825E2,1.2017393E3,6.686274E3,3.3789175E3,8.9942615E2,1.7809192E3,1.0463647E4,5.1555203E4,1.0520829E3,3.1899176E2,4.994709E2,6.397491E2,1.1180281E3,5.409904E2,1.5833458E3,3.297735E3,4.1215356E2,8.130461E2,4.9170624E1,1.2411985E3,4.063539E2,1.937433E2,3.2126191E3,6.7257705E3,1.4707437E2,7.647388E1,2.6719354E2,9.345457E2,4.9068833E3,1.7793909E3,3.0606702E3,3.182473E2,5.995748E2,2.9985132E2,7.28886E2,1.0520332E3,9.932496E3,5.311512E2,6.1755194E2,5.0937652E4],"tree_param":{"num_deleted":"0","num_feature":"51","num_nodes":"63","size_leaf_vector":"1"}},{"base_weights":[-1.2868518E-4,1.0914118E-1,-2.9535534E-2,4.157458E-1,-8.568217E-2,-1.7330633E-1,-1.7385451E-3,2.7577076E-2,5.8762246E-1,-6.6455704E-1,1.095014E-1,2.3694342E-1,-3.7839195E-1,4.7115588E-1,-1.9058565E-2,3.9181885E-1,-1.0094784E0,9.584386E-1,4.3779922E-1,-2.8758428E-1,-1.0955393E0,-9.274818E-1,1.7923154E-1,3.0461133E-1,-1.210039E0,-8.232285E-1,-2.4415864E-1,9.577983E-1,2.7113688E-1,-1.8407193E-1,1.4242445E-2,1.4886072E-1,2.3716524E-2,1.6173106E-1,-1.1096724E-1,7.663536E-2,1.3596717E-1,1.02404095E-1,2.1908006E-2,-1.3594992E-1,2.9060466E-3,-1.4907335E-1,8.851305E-3,-1.353595E-1,-5.4855313E-2,6.892756E-2,2.3412232E-4,3.4907088E-3,6.0983777E-2,1.4996135E-1,-1.6251896E-1,-4.863196E-2,-1.2887701E-1,1.6078173E-1,-3.1514086E-2,1.5504979E-1,6.292012E-2,-1.5218339E-2,5.763196E-2,-2.675862E-2,2.0587757E-2,-3.9955564E-3,5.402097E-3],"categories":[],"categories_nodes":[],"categories_segments":[],"categories_sizes":[],"default_left":[0,0,0,0,0,0,0,0,0,0,0,0,0,0,0,0,0,0,0,0,0,0,0,0,0,0,0,0,0,0,0,0,0,0,0,0,0,0,0,0,0,0,0,0,0,0,0,0,0,0,0,0,0,0,0,0,0,0,0,0,0,0,0],"id":8,"left_children":[1,3,5,7,9,11,13,15,17,19,21,23,25,27,29,31,33,35,37,39,41,43,45,47,49,51,53,55,57,59,61,-1,-1,-1,-1,-1,-1,-1,-1,-1,-1,-1,-1,-1,-1,-1,-1,-1,-1,-1,-1,-1,-1,-1,-1,-1,-1,-1,-1,-1,-1,-1,-1],"loss_changes":[3.147068E2,1.2406073E3,3.0840543E2,5.3835425E2,1.4349956E3,1.0520499E3,5.296826E2,9.362605E2,3.103047E2,5.1999097E2,6.8698645E2,4.084522E2,4.9757373E2,2.221464E2,3.4281546E2,3.1078043E2,1.7135992E2,1.22935425E2,5.1077826E2,5.8032104E2,6.9915247E2,9.591516E1,8.030436E2,3.2781058E2,2.1211938E2,3.023977E2,8.4252795E2,1.2857361E2,2.0946793E2,3.412132E2,1.1191636E2,0E0,0E0,0E0,0E0,0E0,0E0,0E0,0E0,0E0,0E0,0E0,0E0,0E0,0E0,0E0,0E0,0E0,0E0,0E0,0E0,0E0,0E0,0E0,0E0,0E0,0E0,0E0,0E0,0E0,0E0,0E0,0E0],"parents":[2147483647,0,0,1,1,2,2,3,3,4,4,5,5,6,6,7,7,8,8,9,9,10,10,11,11,12,12,13,13,14,14,15,15,16,16,17,17,18,18,19,19,20,20,21,21,22,22,23,23,24,24,25,25,26,26,27,27,28,28,29,29,30,30],"right_children":[2,4,6,8,10,12,14,16,18,20,22,24,26,28,30,32,34,36,38,40,42,44,46,48,50,52,54,56,58,60,62,-1,-1,-1,-1,-1,-1,-1,-1,-1,-1,-1,-1,-1,-1,-1,-1,-1,-1,-1,-1,-1,-1,-1,-1,-1,-1,-1,-1,-1,-1,-1,-1],"split_conditions":[1.2748922E-1,8.238599E-1,1.483995E-1,9.860287E-3,3.3478353E-2,7.096819E-1,1.5598816E-1,7.5241225E-3,1.00807294E-1,8.44886E-1,8.3965284E-1,1.4434853E-1,7.4437404E-1,7.0299297E-3,6.099513E-3,8.067159E-1,8.167322E-1,1.5681041E-2,7.1129024E-1,1.6270524E-2,8.5563713E-1,1.2501646E-2,8.5984707E-1,1.3425575E-1,7.028942E-1,7.124133E-1,7.568653E-1,1.5283722E-1,7.718494E-1,5.6433696E-1,6.618736E-1,1.4886072E-1,2.3716524E-2,1.6173106E-1,-1.1096724E-1,7.663536E-2,1.3596717E-1,1.02404095E-1,2.1908006E-2,-1.3594992E-1,2.9060466E-3,-1.4907335E-1,8.851305E-3,-1.353595E-1,-5.4855313E-2,6.892756E-2,2.3412232E-4,3.4907088E-3,6.0983777E-2,1.4996135E-1,-1.6251896E-1,-4.863196E-2,-1.2887701E-1,1.6078173E-1,-3.1514086E-2,1.5504979E-1,6.292012E-2,-1.5218339E-2,5.763196E-2,-2.675862E-2,2.0587757E-2,-3.9955564E-3,5.402097E-3],"split_indices":[8,41,9,30,10,41,9,8,30,41,41,1,41,38,38,41,41,8,41,28,41,38,41,7,41,41,41,9,41,8,41,0,0,0,0,0,0,0,0,0,0,0,0,0,0,0,0,0,0,0,0,0,0,0,0,0,0,0,0,0,0,0,0],"split_type":[0,0,0,0,0,0,0,0,0,0,0,0,0,0,0,0,0,0,0,0,0,0,0,0,0,0,0,0,0,0,0,0,0,0,0,0,0,0,0,0,0,0,0,0,0,0,0,0,0,0,0,0,0,0,0,0,0,0,0,0,0,0,0],"sum_hessian":[9.793734E4,2.0767357E4,7.7169984E4,8.0684478E3,1.269891E4,1.2502043E4,6.4667945E4,2.4765444E3,5.5919033E3,3.2015015E3,9.497408E3,4.166764E3,8.335278E3,2.2838906E3,6.2384055E4,1.8332721E3,6.4327234E2,1.6076166E3,3.9842866E3,1.708646E3,1.4928556E3,5.976235E2,8.899785E3,3.9813657E3,1.8539845E2,1.9309987E3,6.40428E3,6.641756E2,1.6197151E3,1.0474788E4,5.1909266E4,2.2549048E2,1.6077816E3,2.3078602E1,6.201937E2,1.0891234E3,5.1849316E2,1.0815862E3,2.9027004E3,3.8888562E2,1.3197604E3,1.1190859E3,3.7376968E2,2.800873E2,3.1753616E2,2.29101E3,6.608775E3,2.1142693E3,1.8670964E3,2.4284355E1,1.611141E2,1.121455E3,8.0954376E2,2.356022E2,6.1686777E3,2.3556393E2,4.2861163E2,6.787371E2,9.409779E2,8.627399E3,1.847389E3,2.1972227E4,2.993704E4],"tree_param":{"num_deleted":"0","num_feature":"51","num_nodes":"63","size_leaf_vector":"1"}},{"base_weights":[-1.3964139E-4,9.933478E-2,-2.6627047E-2,3.8122362E-1,-7.828076E-2,-1.567741E-1,-1.5529942E-3,2.4161635E-2,5.396014E-1,-6.150886E-1,9.881595E-2,5.028791E-1,-2.6179045E-1,4.2967424E-1,-1.7250143E-2,5.4739314E-1,-6.111875E-1,9.06799E-1,4.0467685E-1,-2.633984E-1,-1.0271006E0,-8.545917E-1,1.6168156E-1,-4.0039858E-1,8.2121325E-1,-1.5053107E-1,-5.118383E-1,1.5285441E0,3.0881265E-1,-3.3117768E-1,-1.8862813E-3,3.206552E-2,1.3021645E-1,-3.2386493E-2,-1.4271933E-1,1.0377484E-1,9.043912E-3,2.0108765E-2,8.944516E-2,-1.303601E-1,2.740411E-3,-1.4157216E-1,7.97047E-3,1.725473E-1,-9.123793E-2,6.251734E-2,2.1070328E-4,3.4351457E-2,-1.119433E-1,1.1722549E-1,3.435185E-2,1.5061599E-2,-2.4299225E-2,-6.896158E-2,8.384019E-2,1.5583843E-1,5.8544673E-2,-3.1121024E-3,5.979544E-2,-5.8553208E-2,1.7030829E-3,-2.7479578E-2,6.808218E-4],"categories":[],"categories_nodes":[],"categories_segments":[],"categories_sizes":[],"default_left":[0,0,0,0,0,0,0,0,0,0,0,0,0,0,0,0,0,0,0,0,0,0,0,0,0,0,0,0,0,0,0,0,0,0,0,0,0,0,0,0,0,0,0,0,0,0,0,0,0,0,0,0,0,0,0,0,0,0,0,0,0,0,0],"id":9,"left_children":[1,3,5,7,9,11,13,15,17,19,21,23,25,27,29,31,33,35,37,39,41,43,45,47,49,51,53,55,57,59,61,-1,-1,-1,-1,-1,-1,-1,-1,-1,-1,-1,-1,-1,-1,-1,-1,-1,-1,-1,-1,-1,-1,-1,-1,-1,-1,-1,-1,-1,-1,-1,-1],"loss_changes":[2.5716776E2,1.0276321E3,2.5153398E2,4.486338E2,1.197111E3,8.6268115E2,4.374846E2,8.110639E2,2.719154E2,4.523589E2,5.676737E2,4.9212598E2,2.9876367E2,3.0100696E2,3.0077115E2,2.2854614E2,2.578747E2,1.5768835E2,4.0074744E2,5.1021286E2,6.1870166E2,8.89292E1,6.5707544E2,2.3914253E2,2.1172192E2,2.0707326E2,7.944916E2,5.4105835E0,2.0114807E2,2.5770438E2,1.4106934E2,0E0,0E0,0E0,0E0,0E0,0E0,0E0,0E0,0E0,0E0,0E0,0E0,0E0,0E0,0E0,0E0,0E0,0E0,0E0,0E0,0E0,0E0,0E0,0E0,0E0,0E0,0E0,0E0,0E0,0E0,0E0,0E0],"parents":[2147483647,0,0,1,1,2,2,3,3,4,4,5,5,6,6,7,7,8,8,9,9,10,10,11,11,12,12,13,13,14,14,15,15,16,16,17,17,18,18,19,19,20,20,21,21,22,22,23,23,24,24,25,25,26,26,27,27,28,28,29,29,30,30],"right_children":[2,4,6,8,10,12,14,16,18,20,22,24,26,28,30,32,34,36,38,40,42,44,46,48,50,52,54,56,58,60,62,-1,-1,-1,-1,-1,-1,-1,-1,-1,-1,-1,-1,-1,-1,-1,-1,-1,-1,-1,-1,-1,-1,-1,-1,-1,-1,-1,-1,-1,-1,-1,-1],"split_conditions":[1.2748922E-1,8.238599E-1,1.483995E-1,1.01645505E-2,3.3478353E-2,7.022186E-1,1.5490493E-1,8.15745E-1,3.4771333E-3,8.44886E-1,8.3965284E-1,6.951864E-1,1.4197846E-1,6.997102E-1,3.2707166E-3,5.9866044E-3,8.672128E-3,1.237978E-1,8.167322E-1,1.6314656E-2,8.5563713E-1,8.903764E-2,8.5984707E-1,1.2896253E-1,4.403726E-1,7.096819E-1,8.687791E-1,1.5558292E-1,7.718494E-1,4.5639378E-1,1.6223104E-1,3.206552E-2,1.3021645E-1,-3.2386493E-2,-1.4271933E-1,1.0377484E-1,9.043912E-3,2.0108765E-2,8.944516E-2,-1.303601E-1,2.740411E-3,-1.4157216E-1,7.97047E-3,1.725473E-1,-9.123793E-2,6.251734E-2,2.1070328E-4,3.4351457E-2,-1.119433E-1,1.1722549E-1,3.435185E-2,1.5061599E-2,-2.4299225E-2,-6.896158E-2,8.384019E-2,1.5583843E-1,5.8544673E-2,-3.1121024E-3,5.979544E-2,-5.8553208E-2,1.7030829E-3,-2.7479578E-2,6.808218E-4],"split_indices":[8,41,9,46,10,41,1,41,38,41,41,41,7,41,38,28,7,3,41,6,41,48,41,8,20,41,41,3,41,9,28,0,0,0,0,0,0,0,0,0,0,0,0,0,0,0,0,0,0,0,0,0,0,0,0,0,0,0,0,0,0,0,0],"split_type":[0,0,0,0,0,0,0,0,0,0,0,0,0,0,0,0,0,0,0,0,0,0,0,0,0,0,0,0,0,0,0,0,0,0,0,0,0,0,0,0,0,0,0,0,0,0,0,0,0,0,0,0,0,0,0,0,0,0,0,0,0,0,0],"sum_hessian":[9.760156E4,2.0523197E4,7.707837E4,7.932536E3,1.2590661E4,1.2450209E4,6.4628156E4,2.437763E3,5.4947734E3,3.1227239E3,9.4679375E3,1.7093365E3,1.0740873E4,2.268983E3,6.235917E4,1.3369104E3,1.1008524E3,1.4749552E3,4.0198184E3,1.6855723E3,1.4371516E3,5.8489777E2,8.88304E3,4.4536087E2,1.2639756E3,7.4344844E3,3.3063887E3,2.2367644E2,2.0453065E3,2.908554E3,5.945062E4,1.0291671E3,3.0774332E2,8.152077E2,2.8564474E2,1.2708342E3,2.0412099E2,2.8404941E3,1.1793242E3,3.6750867E2,1.3180636E3,1.0634681E3,3.7368353E2,1.2181179E1,5.7271655E2,2.2743025E3,6.608737E3,2.1915022E2,2.2621065E2,7.277344E2,5.362413E2,1.7462617E3,5.6882227E3,2.9221387E3,3.8425012E2,2.1618382E2,7.492608E0,9.404937E2,1.1048127E3,1.6803988E3,1.2281553E3,1.8345879E3,5.761603E4],"tree_param":{"num_deleted":"0","num_feature":"51","num_nodes":"63","size_leaf_vector":"1"}}]},"name":"gbtree"},"learner_model_param":{"base_score":"4.9369228E-1","boost_from_average":"1","num_class":"0","num_feature":"51","num_target":"1"},"objective":{"name":"binary:logistic","reg_loss_param":{"scale_pos_weight":"1"}}},"version":[2,1,2]}